{"v":"5.7.0","fr":60,"ip":0,"op":320,"w":270,"h":182,"assets":[],"slots":{"bgColor":{"p":{"a":0,"k":[1,1,1,0]}}},"layers":[{"ty":4,"nm":"sprinkle","ip":0,"op":320,"st":0,"ks":{"o":{"a":0,"k":100},"r":{"a":0,"k":0},"p":{"a":0,"k":[0,0,0]},"a":{"a":0,"k":[0,0,0]},"s":{"a":0,"k":[100,100,100]}},"shapes":[{"ty":"gr","nm":"strokeGroup","it":[{"ty":"sh","nm":"path","ks":{"a":0,"k":{"v":[[137.101562,85.761719],[97.050781,54.488281],[92.625,48.9375],[90.074219,43.6875],[91.125,38.136719],[97.125,34.460938],[107.851562,32.8125],[121.875,32.738281],[138.074219,34.914062],[153.898438,39.863281],[166.574219,47.210938],[175.050781,57.113281],[177.601562,69.5625],[172.574219,84.1875],[159.523438,100.988281],[140.625,118.761719],[120.074219,135.488281],[101.25,149.0625],[85.199219,158.664062],[73.726562,163.761719],[65.550781,165.1875],[63.523438,160.914062],[68.101562,153.9375],[82.5,141.9375],[105.449219,127.011719],[132.675781,112.085938],[159.675781,99.488281],[185.023438,89.585938],[205.726562,82.988281],[220.648438,79.835938],[229.125,79.238281],[234.75,84.261719],[233.324219,90.113281],[226.425781,99.1875],[215.851562,109.3125],[193.425781,129.636719],[190.726562,130.3125],[188.625,128.363281],[189.523438,125.0625],[206.324219,117.789062],[224.476562,110.8125],[245.25,104.511719],[263.851562,100.386719],[276.226562,99.335938],[284.476562,104.289062],[283.5,110.738281],[273.976562,120.789062],[228.824219,154.011719],[226.050781,154.460938],[224.550781,153.261719],[224.101562,151.460938],[225.523438,149.0625],[228.375,148.914062],[230.023438,151.164062],[229.125,153.863281],[226.425781,154.539062],[224.25,152.738281],[224.175781,150.789062],[225.300781,149.210938],[269.69921899999997,116.585938],[277.875,109.011719],[276.523438,105.335938],[265.125,106.3125],[246.976562,110.289062],[226.648438,116.363281],[190.726562,130.3125],[188.476562,127.6875],[190.050781,123.9375],[221.699219,95.511719],[227.699219,88.164062],[228.976562,85.085938],[221.851562,85.6875],[207.523438,88.761719],[187.199219,95.136719],[162.226562,104.886719],[135.523438,117.335938],[108.75,132.113281],[86.324219,146.585938],[68.476562,161.0625],[71.25,158.289062],[82.125,153.5625],[97.726562,144.1875],[116.25,130.835938],[136.5,114.414062],[154.800781,97.238281],[166.949219,82.011719],[171.675781,70.164062],[170.25,60.5625],[163.5,52.3125],[152.101562,45.5625],[137.25,40.835938],[121.875,38.738281],[108.675781,38.738281],[99.675781,39.863281],[95.625,41.738281],[101.324219,50.210938],[113.175781,61.386719],[141.074219,81.261719],[141.824219,83.210938],[141.074219,85.238281],[139.199219,86.210938]],"i":[[0,0],[3,3.222656999999998],[1.1992189999999994,1.875],[0.30078100000000063,1.8007810000000006],[-1.0507810000000006,1.5],[-2.3984379999999987,0.8281240000000025],[-3.8281240000000025,0.30078100000000063],[-4.875,-0.30078100000000063],[-5.324218999999999,-1.2031240000000025],[-4.875,-2.1757810000000006],[-3.597656999999998,-3],[-1.875,-3.75],[0.2226569999999981,-4.273437999999999],[2.625,-4.875],[4.9531240000000025,-5.550781000000001],[6.523437999999999,-5.699218999999999],[6.75,-5.175781000000001],[6.074218999999999,-3.9765620000000013],[4.949218999999999,-2.5507810000000006],[3.5234379999999987,-1.0507810000000006],[1.722656999999998,0.8984379999999987],[-0.07421899999999937,1.5742189999999994],[-2.1757810000000006,2.3984379999999987],[-5.476562000000001,4.050781000000001],[-8.023437999999999,4.875],[-9.152343000000002,4.652343000000002],[-8.925781,3.8242189999999994],[-8.097656999999998,2.8515620000000013],[-6.375,1.722656999999998],[-4.347656999999998,0.6015620000000013],[-2.3984379999999987,-0.8242189999999994],[-0.6015620000000013,-1.9492189999999994],[0.9765620000000013,-2.027343000000002],[2.6992189999999994,-3],[4.273437999999999,-3.8984379999999987],[4.050781000000001,-2.097656999999998],[0.75,0.14843799999999874],[0.22656200000000126,0.8242189999999994],[-0.9726569999999981,1.125],[-5.699218999999999,2.3984379999999987],[-6.300781000000001,2.1015620000000013],[-6.75,1.8007810000000006],[-5.625,0.9023430000000019],[-3.6015620000000013,-0.8242189999999994],[-1.0507809999999722,-2.1757810000000006],[1.050781000000029,-2.25],[4.574219000000028,-4.050781000000001],[6.152343000000002,-2.472656999999998],[0.75,0.22656200000000126],[0.375,0.5273430000000019],[-0.1523430000000019,0.6015620000000013],[-0.6718759999999975,0.375],[-0.75,-0.375],[-0.14843799999999874,-0.8281240000000025],[0.6015620000000013,-0.6015620000000013],[0.75,0.2226569999999981],[0.375,0.6757810000000006],[-0.1523430000000019,0.5976569999999981],[-0.75,0.75],[-8.773437999999942,7.2031240000000025],[-0.5234379999999987,2.25],[1.125,0.6757810000000006],[4.199218999999971,-0.6757810000000006],[6.148437999999999,-1.652343000000002],[7.652343000000002,-2.625],[4.648437999999999,1.125],[0.14843799999999874,0.9765620000000013],[-1.1992189999999994,1.6484379999999987],[-6.222656999999998,6.601562000000001],[-1.1992189999999994,1.9492189999999994],[0.375,0.5273430000000019],[2.7734379999999987,-0.375],[5.175781000000001,-1.347656999999998],[7.050781000000001,-2.472656999999998],[8.398437999999999,-3.597656999999998],[8.851562000000001,-4.4218759999999975],[8.476562000000001,-5.101562000000001],[6.902343000000002,-5.023437999999999],[0.14843799999999874,0.14843799999999874],[-1.3515620000000013,0.8984379999999987],[-3.8984379999999987,1.9492189999999994],[-5.3281240000000025,3.5234379999999987],[-6.226562000000001,4.800781000000001],[-6.449218999999999,5.699218999999999],[-5.324218999999999,5.773437999999999],[-2.847656999999998,4.949218999999999],[-0.44921899999999937,3.8242189999999994],[1.2734379999999987,2.9257810000000006],[2.7734379999999987,2.3984379999999987],[4.125,1.875],[5.101562000000001,1.125],[4.949218999999999,0.375],[3.972656999999998,-0.22656200000000126],[2.3242189999999994,-0.6015620000000013],[0.30078100000000063,-1.125],[-2.472656999999998,-2.847656999999998],[-4.949218999999999,-4.050781000000001],[-2.6992189999999994,-3.4492189999999994],[0,-0.5976569999999981],[0.44921899999999937,-0.5273430000000019],[0.6757810000000006,-0.07421899999999937]],"o":[[-32.703124,-23.773438],[-1.9492189999999994,-2.1015620000000013],[-1.0507810000000006,-1.7265620000000013],[-0.2226569999999981,-1.8007810000000006],[1.125,-1.6484379999999987],[3,-1.125],[4.347656999999998,-0.30078100000000063],[5.25,0.375],[5.402343000000002,1.1992189999999994],[4.5781240000000025,2.0234379999999987],[3.375,2.8515620000000013],[1.8007810000000006,3.6757810000000006],[-0.30078100000000063,4.648437999999999],[-3.0742189999999994,5.625],[-5.5468759999999975,6.074218999999999],[-6.601562000000001,5.851562000000001],[-6.375,4.875],[-5.476562000000001,3.6015620000000013],[-4.050781000000001,2.1718759999999975],[-2.9257810000000006,0.9023430000000019],[-1.277343000000002,-0.6757810000000006],[0.1523430000000019,-2.1015620000000013],[3.2968759999999975,-3.75],[6.601562000000001,-4.875],[8.625,-5.097656999999998],[8.925781,-4.5],[8.472656999999998,-3.6757810000000006],[7.2031240000000025,-2.5468759999999975],[5.324218999999999,-1.3515620000000013],[3.152343000000002,-0.44921899999999937],[2.25,0.75],[0.5234379999999987,1.7265620000000013],[-1.347656999999998,2.847656999999998],[-3,3.4492189999999994],[-6,5.625],[-1.1992189999999994,0.6757810000000006],[-0.8281240000000025,-0.22656200000000126],[-0.22656200000000126,-0.8242189999999994],[2.1757810000000006,-2.4765620000000013],[5.925781000000001,-2.402343000000002],[6.6718759999999975,-2.3242189999999994],[6.300781000000001,-1.6484379999999987],[4.5,-0.6757810000000006],[3.1484379999999987,0.75],[0.8242190000000278,1.7968759999999975],[-1.574218999999971,3.222656999999998],[-9.300780999999972,8.25],[-1.347656999999998,0.6015620000000013],[-0.6015620000000013,-0.14843799999999874],[-0.30078100000000063,-0.44921899999999937],[0.07421899999999937,-0.8242189999999994],[0.75,-0.44921899999999937],[0.75,0.375],[0.1523430000000019,0.8242189999999994],[-0.6015620000000013,0.5234379999999987],[-0.8242189999999994,-0.1523430000000019],[-0.22656200000000126,-0.6015620000000013],[0.14843799999999874,-0.6015620000000013],[3.972656999999998,-4.0468759999999975],[3.976562000000058,-3.2968759999999975],[0.375,-1.347656999999998],[-1.875,-1.1992189999999994],[-5.398437999999999,0.75],[-6.601562000000001,1.722656999999998],[-10.347656999999998,3.597656999999998],[-1.4257810000000006,-0.375],[-0.1523430000000019,-1.125],[3.8242189999999994,-5.398437999999999],[2.9257810000000006,-3.0742189999999994],[0.6757810000000006,-1.2031240000000025],[-0.6015620000000013,-0.8242189999999994],[-3.9765620000000013,0.6015620000000013],[-6.222656999999998,1.652343000000002],[-7.949218999999999,2.8515620000000013],[-8.851562000000001,3.75],[-9,4.5781240000000025],[-7.875,4.648437999999999],[-6.449218999999999,4.652343000000002],[-0.07812400000000252,-0.07421899999999937],[2.3984379999999987,-1.5781240000000025],[4.800781000000001,-2.4765620000000013],[6,-3.8984379999999987],[6.675781000000001,-5.097656999999998],[6.375,-5.550781000000001],[4.648437999999999,-5.101562000000001],[2.3242189999999994,-3.972656999999998],[0.375,-3.3007810000000006],[-1.3515620000000013,-3.0742189999999994],[-3.1484379999999987,-2.6992189999999994],[-4.5,-2.0234379999999987],[-5.023437999999999,-1.125],[-4.574218999999999,-0.30078100000000063],[-3.3007810000000006,0.2226569999999981],[-1.652343000000002,0.5234379999999987],[-0.5234379999999987,1.6484379999999987],[3.0742189999999994,3.6757810000000006],[7.125,5.925781000000001],[0.6015620000000013,0.8242189999999994],[0,0.6757810000000006],[-0.44921899999999937,0.5234379999999987],[-0.6757810000000006,0.07812400000000252]],"c":true}}},{"ty":"tm","nm":"reveal","s":{"a":0,"k":0},"e":{"a":1,"k":[{"t":0,"s":[0],"i":{"x":[0.42],"y":[1]},"o":{"x":[0.58],"y":[0]}},{"t":200,"s":[50]}]},"o":{"a":0,"k":0},"m":1},{"ty":"st","nm":"stroke","c":{"a":0,"k":[0.071,0.071,0.071,1]},"o":{"a":0,"k":100},"w":{"a":0,"k":4},"lc":2,"lj":2},{"ty":"tr","p":{"a":0,"k":[0,0]},"a":{"a":0,"k":[0,0]},"s":{"a":0,"k":[100,100]},"r":{"a":0,"k":0},"o":{"a":0,"k":100}}]}]},{"ty":4,"nm":"background","ip":0,"op":320,"st":0,"ks":{"o":{"a":0,"k":100},"p":{"a":0,"k":[135,91,0]},"a":{"a":0,"k":[0,0,0]},"s":{"a":0,"k":[100,100,100]},"r":{"a":0,"k":0}},"shapes":[{"ty":"gr","it":[{"ty":"rc","p":{"a":0,"k":[135,91]},"s":{"a":0,"k":[270,182]},"r":{"a":0,"k":0}},{"ty":"fl","c":{"sid":"bgColor"},"o":{"a":0,"k":100}},{"ty":"tr","p":{"a":0,"k":[0,0]},"a":{"a":0,"k":[0,0]},"s":{"a":0,"k":[100,100]},"r":{"a":0,"k":0},"o":{"a":0,"k":100}}]}]}]}